{
 "epoch": [
  0,
  0,
  0,
  0,
  0,
  0,
  0,
  0,
  0,
  0,
  0,
  0,
  0,
  0,
  0,
  0,
  0,
  0,
  0,
  0,
  0,
  0,
  0,
  0,
  0,
  0,
  0,
  0,
  0,
  0,
  1,
  1,
  1,
  1,
  1,
  1,
  1,
  1,
  1,
  1,
  1,
  1,
  1,
  1,
  1,
  1,
  1,
  1,
  1,
  1,
  1,
  1,
  1,
  1,
  1,
  1,
  1,
  1,
  1,
  1,
  2,
  2,
  2,
  2,
  2,
  2,
  2,
  2,
  2,
  2,
  2,
  2,
  2,
  2,
  2,
  2,
  2,
  2,
  2,
  2,
  2,
  2,
  2,
  2,
  2,
  2,
  2,
  2,
  2,
  2,
  3,
  3,
  3,
  3,
  3,
  3,
  3,
  3,
  3,
  3,
  3,
  3,
  3,
  3,
  3,
  3,
  3,
  3,
  3,
  3,
  3,
  3,
  3,
  3,
  3,
  3,
  3,
  3,
  3,
  3,
  4,
  4,
  4,
  4,
  4,
  4,
  4,
  4,
  4,
  4,
  4,
  4,
  4,
  4,
  4,
  4,
  4,
  4,
  4,
  4,
  4,
  4,
  4,
  4,
  4,
  4,
  4,
  4,
  4,
  4,
  5,
  5,
  5,
  5,
  5,
  5,
  5,
  5,
  5,
  5,
  5,
  5,
  5,
  5,
  5,
  5,
  5,
  5,
  5,
  5,
  5,
  5,
  5,
  5,
  5,
  5,
  5,
  5,
  5,
  5,
  6,
  6,
  6,
  6,
  6,
  6,
  6,
  6,
  6,
  6,
  6,
  6,
  6,
  6,
  6,
  6,
  6,
  6,
  6,
  6,
  6,
  6,
  6,
  6,
  6,
  6,
  6,
  6,
  6,
  6,
  7,
  7,
  7,
  7,
  7,
  7,
  7,
  7,
  7,
  7,
  7,
  7,
  7,
  7,
  7,
  7,
  7,
  7,
  7,
  7,
  7,
  7,
  7,
  7,
  7,
  7,
  7,
  7,
  7,
  7
 ],
 "timestamp": [
  "03/30/22-10:43:00",
  "03/30/22-10:43:07",
  "03/30/22-10:43:13",
  "03/30/22-10:43:19",
  "03/30/22-10:43:26",
  "03/30/22-10:43:32",
  "03/30/22-10:43:38",
  "03/30/22-10:43:44",
  "03/30/22-10:44:01",
  "03/30/22-10:44:19",
  "03/30/22-10:44:36",
  "03/30/22-10:44:53",
  "03/30/22-10:45:10",
  "03/30/22-10:45:28",
  "03/30/22-10:45:46",
  "03/30/22-10:46:04",
  "03/30/22-10:46:15",
  "03/30/22-10:46:27",
  "03/30/22-10:46:38",
  "03/30/22-10:46:51",
  "03/30/22-10:47:03",
  "03/30/22-10:47:15",
  "03/30/22-10:47:26",
  "03/30/22-10:47:37",
  "03/30/22-10:47:37",
  "03/30/22-10:47:38",
  "03/30/22-10:47:39",
  "03/30/22-10:47:40",
  "03/30/22-10:47:41",
  "03/30/22-10:47:42",
  "03/30/22-10:48:25",
  "03/30/22-10:48:32",
  "03/30/22-10:48:38",
  "03/30/22-10:48:45",
  "03/30/22-10:48:51",
  "03/30/22-10:48:58",
  "03/30/22-10:49:04",
  "03/30/22-10:49:10",
  "03/30/22-10:49:29",
  "03/30/22-10:49:47",
  "03/30/22-10:50:04",
  "03/30/22-10:50:22",
  "03/30/22-10:50:39",
  "03/30/22-10:50:56",
  "03/30/22-10:51:13",
  "03/30/22-10:51:29",
  "03/30/22-10:51:43",
  "03/30/22-10:51:55",
  "03/30/22-10:52:07",
  "03/30/22-10:52:19",
  "03/30/22-10:52:31",
  "03/30/22-10:52:43",
  "03/30/22-10:52:55",
  "03/30/22-10:53:07",
  "03/30/22-10:53:08",
  "03/30/22-10:53:09",
  "03/30/22-10:53:10",
  "03/30/22-10:53:11",
  "03/30/22-10:53:11",
  "03/30/22-10:53:12",
  "03/30/22-10:54:04",
  "03/30/22-10:54:11",
  "03/30/22-10:54:18",
  "03/30/22-10:54:25",
  "03/30/22-10:54:32",
  "03/30/22-10:54:38",
  "03/30/22-10:54:45",
  "03/30/22-10:54:52",
  "03/30/22-10:55:12",
  "03/30/22-10:55:30",
  "03/30/22-10:55:48",
  "03/30/22-10:56:06",
  "03/30/22-10:56:24",
  "03/30/22-10:56:42",
  "03/30/22-10:56:59",
  "03/30/22-10:57:18",
  "03/30/22-10:57:31",
  "03/30/22-10:57:43",
  "03/30/22-10:57:55",
  "03/30/22-10:58:07",
  "03/30/22-10:58:18",
  "03/30/22-10:58:29",
  "03/30/22-10:58:41",
  "03/30/22-10:58:51",
  "03/30/22-10:58:53",
  "03/30/22-10:58:54",
  "03/30/22-10:58:55",
  "03/30/22-10:58:55",
  "03/30/22-10:58:56",
  "03/30/22-10:58:57",
  "03/30/22-10:59:48",
  "03/30/22-10:59:56",
  "03/30/22-11:00:02",
  "03/30/22-11:00:08",
  "03/30/22-11:00:15",
  "03/30/22-11:00:21",
  "03/30/22-11:00:27",
  "03/30/22-11:00:34",
  "03/30/22-11:00:52",
  "03/30/22-11:01:09",
  "03/30/22-11:01:27",
  "03/30/22-11:01:44",
  "03/30/22-11:02:00",
  "03/30/22-11:02:18",
  "03/30/22-11:02:36",
  "03/30/22-11:02:54",
  "03/30/22-11:03:08",
  "03/30/22-11:03:20",
  "03/30/22-11:03:32",
  "03/30/22-11:03:44",
  "03/30/22-11:03:56",
  "03/30/22-11:04:08",
  "03/30/22-11:04:19",
  "03/30/22-11:04:31",
  "03/30/22-11:04:33",
  "03/30/22-11:04:33",
  "03/30/22-11:04:34",
  "03/30/22-11:04:35",
  "03/30/22-11:04:36",
  "03/30/22-11:04:37",
  "03/30/22-11:05:28",
  "03/30/22-11:05:36",
  "03/30/22-11:05:43",
  "03/30/22-11:05:49",
  "03/30/22-11:05:56",
  "03/30/22-11:06:02",
  "03/30/22-11:06:08",
  "03/30/22-11:06:15",
  "03/30/22-11:06:33",
  "03/30/22-11:06:50",
  "03/30/22-11:07:09",
  "03/30/22-11:07:26",
  "03/30/22-11:07:44",
  "03/30/22-11:08:01",
  "03/30/22-11:08:17",
  "03/30/22-11:08:34",
  "03/30/22-11:08:45",
  "03/30/22-11:08:58",
  "03/30/22-11:09:11",
  "03/30/22-11:09:23",
  "03/30/22-11:09:35",
  "03/30/22-11:09:47",
  "03/30/22-11:09:59",
  "03/30/22-11:10:11",
  "03/30/22-11:10:12",
  "03/30/22-11:10:13",
  "03/30/22-11:10:15",
  "03/30/22-11:10:15",
  "03/30/22-11:10:16",
  "03/30/22-11:10:17",
  "03/30/22-11:11:10",
  "03/30/22-11:11:17",
  "03/30/22-11:11:24",
  "03/30/22-11:11:30",
  "03/30/22-11:11:37",
  "03/30/22-11:11:44",
  "03/30/22-11:11:51",
  "03/30/22-11:11:57",
  "03/30/22-11:12:16",
  "03/30/22-11:12:34",
  "03/30/22-11:12:52",
  "03/30/22-11:13:10",
  "03/30/22-11:13:28",
  "03/30/22-11:13:46",
  "03/30/22-11:14:04",
  "03/30/22-11:14:22",
  "03/30/22-11:14:35",
  "03/30/22-11:14:47",
  "03/30/22-11:14:59",
  "03/30/22-11:15:11",
  "03/30/22-11:15:23",
  "03/30/22-11:15:35",
  "03/30/22-11:15:47",
  "03/30/22-11:15:58",
  "03/30/22-11:16:00",
  "03/30/22-11:16:00",
  "03/30/22-11:16:01",
  "03/30/22-11:16:02",
  "03/30/22-11:16:03",
  "03/30/22-11:16:04",
  "03/30/22-11:16:56",
  "03/30/22-11:17:02",
  "03/30/22-11:17:09",
  "03/30/22-11:17:15",
  "03/30/22-11:17:22",
  "03/30/22-11:17:28",
  "03/30/22-11:17:35",
  "03/30/22-11:17:41",
  "03/30/22-11:18:01",
  "03/30/22-11:18:19",
  "03/30/22-11:18:37",
  "03/30/22-11:18:56",
  "03/30/22-11:19:14",
  "03/30/22-11:19:32",
  "03/30/22-11:19:49",
  "03/30/22-11:20:06",
  "03/30/22-11:20:20",
  "03/30/22-11:20:32",
  "03/30/22-11:20:44",
  "03/30/22-11:20:55",
  "03/30/22-11:21:06",
  "03/30/22-11:21:17",
  "03/30/22-11:21:29",
  "03/30/22-11:21:40",
  "03/30/22-11:21:41",
  "03/30/22-11:21:42",
  "03/30/22-11:21:43",
  "03/30/22-11:21:44",
  "03/30/22-11:21:44",
  "03/30/22-11:21:45",
  "03/30/22-11:22:37",
  "03/30/22-11:22:43",
  "03/30/22-11:22:49",
  "03/30/22-11:22:56",
  "03/30/22-11:23:02",
  "03/30/22-11:23:08",
  "03/30/22-11:23:14",
  "03/30/22-11:23:20",
  "03/30/22-11:23:39",
  "03/30/22-11:23:58",
  "03/30/22-11:24:16",
  "03/30/22-11:24:34",
  "03/30/22-11:24:51",
  "03/30/22-11:25:09",
  "03/30/22-11:25:27",
  "03/30/22-11:25:45",
  "03/30/22-11:25:58",
  "03/30/22-11:26:10",
  "03/30/22-11:26:22",
  "03/30/22-11:26:34",
  "03/30/22-11:26:46",
  "03/30/22-11:26:58",
  "03/30/22-11:27:10",
  "03/30/22-11:27:22",
  "03/30/22-11:27:23",
  "03/30/22-11:27:24",
  "03/30/22-11:27:25",
  "03/30/22-11:27:26",
  "03/30/22-11:27:26",
  "03/30/22-11:27:27"
 ],
 "batch": [
  0,
  1,
  2,
  3,
  4,
  5,
  6,
  7,
  8,
  9,
  10,
  11,
  12,
  13,
  14,
  15,
  16,
  17,
  18,
  19,
  20,
  21,
  22,
  23,
  24,
  25,
  26,
  27,
  28,
  29,
  0,
  1,
  2,
  3,
  4,
  5,
  6,
  7,
  8,
  9,
  10,
  11,
  12,
  13,
  14,
  15,
  16,
  17,
  18,
  19,
  20,
  21,
  22,
  23,
  24,
  25,
  26,
  27,
  28,
  29,
  0,
  1,
  2,
  3,
  4,
  5,
  6,
  7,
  8,
  9,
  10,
  11,
  12,
  13,
  14,
  15,
  16,
  17,
  18,
  19,
  20,
  21,
  22,
  23,
  24,
  25,
  26,
  27,
  28,
  29,
  0,
  1,
  2,
  3,
  4,
  5,
  6,
  7,
  8,
  9,
  10,
  11,
  12,
  13,
  14,
  15,
  16,
  17,
  18,
  19,
  20,
  21,
  22,
  23,
  24,
  25,
  26,
  27,
  28,
  29,
  0,
  1,
  2,
  3,
  4,
  5,
  6,
  7,
  8,
  9,
  10,
  11,
  12,
  13,
  14,
  15,
  16,
  17,
  18,
  19,
  20,
  21,
  22,
  23,
  24,
  25,
  26,
  27,
  28,
  29,
  0,
  1,
  2,
  3,
  4,
  5,
  6,
  7,
  8,
  9,
  10,
  11,
  12,
  13,
  14,
  15,
  16,
  17,
  18,
  19,
  20,
  21,
  22,
  23,
  24,
  25,
  26,
  27,
  28,
  29,
  0,
  1,
  2,
  3,
  4,
  5,
  6,
  7,
  8,
  9,
  10,
  11,
  12,
  13,
  14,
  15,
  16,
  17,
  18,
  19,
  20,
  21,
  22,
  23,
  24,
  25,
  26,
  27,
  28,
  29,
  0,
  1,
  2,
  3,
  4,
  5,
  6,
  7,
  8,
  9,
  10,
  11,
  12,
  13,
  14,
  15,
  16,
  17,
  18,
  19,
  20,
  21,
  22,
  23,
  24,
  25,
  26,
  27,
  28,
  29
 ],
 "loss": [
  -6.836307525634766,
  -8.106486320495605,
  -8.450889587402344,
  -9.279006004333496,
  -9.403170585632324,
  -9.494102478027344,
  -9.47040843963623,
  -9.315566062927246,
  -17.9565372467041,
  -19.196969985961914,
  -18.561887741088867,
  -19.273590087890625,
  -19.28862190246582,
  -19.654338836669922,
  -20.24745750427246,
  -19.934680938720703,
  -19.85175895690918,
  -20.352731704711914,
  -20.60352897644043,
  -20.448644638061523,
  -21.434762954711914,
  -20.97640037536621,
  -21.5930233001709,
  -21.234149932861328,
  -3.3684561252593994,
  -3.0607099533081055,
  -3.3995182514190674,
  -3.127735137939453,
  -3.5359301567077637,
  -3.3776450157165527,
  -11.705245971679688,
  -12.155671119689941,
  -12.221961975097656,
  -12.8086519241333,
  -12.96448802947998,
  -12.633429527282715,
  -12.580947875976562,
  -13.02021312713623,
  -25.88120460510254,
  -25.361133575439453,
  -24.985794067382812,
  -25.531940460205078,
  -26.63479232788086,
  -25.183597564697266,
  -26.898456573486328,
  -26.123920440673828,
  -23.36981201171875,
  -24.579004287719727,
  -24.50551414489746,
  -24.643945693969727,
  -24.54248809814453,
  -23.59786033630371,
  -24.702829360961914,
  -24.847726821899414,
  -3.668330669403076,
  -3.156614065170288,
  -3.4312822818756104,
  -3.6492362022399902,
  -3.8041131496429443,
  -3.6719629764556885,
  -14.86875057220459,
  -14.158780097961426,
  -14.554771423339844,
  -13.934548377990723,
  -14.364075660705566,
  -14.39606761932373,
  -14.086235046386719,
  -14.625016212463379,
  -29.291976928710938,
  -30.192279815673828,
  -30.212642669677734,
  -27.80891990661621,
  -29.601675033569336,
  -29.473560333251953,
  -29.230493545532227,
  -30.95108985900879,
  -25.9436092376709,
  -26.156097412109375,
  -26.46290397644043,
  -26.245615005493164,
  -25.773841857910156,
  -26.69751739501953,
  -26.0451717376709,
  -26.01763916015625,
  -3.655855894088745,
  -3.8118255138397217,
  -3.6577510833740234,
  -3.9994168281555176,
  -3.8766658306121826,
  -3.753026008605957,
  -15.200011253356934,
  -14.651816368103027,
  -14.927849769592285,
  -15.59994888305664,
  -15.323540687561035,
  -15.89080810546875,
  -14.946284294128418,
  -15.232636451721191,
  -30.563152313232422,
  -31.64495277404785,
  -31.02374267578125,
  -31.899133682250977,
  -31.744415283203125,
  -31.426605224609375,
  -30.942615509033203,
  -33.207923889160156,
  -27.08209800720215,
  -26.256393432617188,
  -26.30434226989746,
  -26.265188217163086,
  -28.260223388671875,
  -26.72901725769043,
  -26.993085861206055,
  -27.451202392578125,
  -4.170658111572266,
  -4.21631383895874,
  -4.086549758911133,
  -4.12862491607666,
  -4.221426963806152,
  -4.011749744415283,
  -16.10439109802246,
  -15.732672691345215,
  -16.142492294311523,
  -15.86500072479248,
  -16.153215408325195,
  -16.003889083862305,
  -15.85632038116455,
  -15.92105484008789,
  -31.997150421142578,
  -32.52714538574219,
  -33.49108123779297,
  -32.428871154785156,
  -33.44444274902344,
  -33.64487838745117,
  -32.89909362792969,
  -33.18456268310547,
  -27.88191795349121,
  -27.59828758239746,
  -24.79912757873535,
  -25.771371841430664,
  -28.154481887817383,
  -27.979249954223633,
  -27.596445083618164,
  -27.36652946472168,
  -4.306459903717041,
  -3.868328809738159,
  -3.8507590293884277,
  -4.0837273597717285,
  -4.289217472076416,
  -4.419945240020752,
  -16.836645126342773,
  -16.631834030151367,
  -16.18990135192871,
  -16.183265686035156,
  -15.47383975982666,
  -16.112424850463867,
  -15.951516151428223,
  -16.553808212280273,
  -33.528846740722656,
  -33.64361572265625,
  -32.95743942260742,
  -33.70841598510742,
  -33.8132438659668,
  -33.42705154418945,
  -34.001800537109375,
  -33.273006439208984,
  -27.551788330078125,
  -28.80430793762207,
  -29.08063316345215,
  -28.702239990234375,
  -29.00471305847168,
  -28.260498046875,
  -28.853212356567383,
  -29.918447494506836,
  -4.219057083129883,
  -3.997688055038452,
  -4.364889144897461,
  -4.4473185539245605,
  -4.141992092132568,
  -4.337427616119385,
  -16.8551082611084,
  -17.141855239868164,
  -16.742351531982422,
  -15.707661628723145,
  -17.767248153686523,
  -16.115537643432617,
  -16.35576820373535,
  -16.74003028869629,
  -34.06487274169922,
  -34.530364990234375,
  -34.42889404296875,
  -33.2623405456543,
  -34.92346954345703,
  -33.92497634887695,
  -33.65049362182617,
  -35.40214157104492,
  -29.270240783691406,
  -29.178030014038086,
  -28.4030818939209,
  -29.480680465698242,
  -29.03249168395996,
  -29.82221031188965,
  -28.810379028320312,
  -29.44244384765625,
  -4.699273109436035,
  -4.46626615524292,
  -4.020520210266113,
  -4.270440101623535,
  -4.370312213897705,
  -4.456766128540039,
  -17.244787216186523,
  -17.133371353149414,
  -16.116125106811523,
  -17.306045532226562,
  -16.609180450439453,
  -17.107675552368164,
  -16.401275634765625,
  -16.259353637695312,
  -34.50956726074219,
  -36.05842208862305,
  -34.05662155151367,
  -35.513160705566406,
  -35.314517974853516,
  -35.06580352783203,
  -34.316524505615234,
  -34.65994644165039,
  -29.122007369995117,
  -29.49852180480957,
  -30.23438262939453,
  -30.0362548828125,
  -28.723684310913086,
  -29.13431739807129,
  -28.98552131652832,
  -30.119964599609375,
  -4.355969429016113,
  -3.7669153213500977,
  -4.227135181427002,
  -4.133841514587402,
  -4.464288234710693,
  -4.781826496124268
 ],
 "lr": [
  0.05,
  0.05,
  0.05,
  0.05,
  0.05,
  0.05,
  0.05,
  0.05,
  0.05,
  0.05,
  0.05,
  0.05,
  0.05,
  0.05,
  0.05,
  0.05,
  0.05,
  0.05,
  0.05,
  0.05,
  0.05,
  0.05,
  0.05,
  0.05,
  0.05,
  0.05,
  0.05,
  0.05,
  0.05,
  0.05,
  0.0475,
  0.0475,
  0.0475,
  0.0475,
  0.0475,
  0.0475,
  0.0475,
  0.0475,
  0.0475,
  0.0475,
  0.0475,
  0.0475,
  0.0475,
  0.0475,
  0.0475,
  0.0475,
  0.0475,
  0.0475,
  0.0475,
  0.0475,
  0.0475,
  0.0475,
  0.0475,
  0.0475,
  0.0475,
  0.0475,
  0.0475,
  0.0475,
  0.0475,
  0.0475,
  0.045125,
  0.045125,
  0.045125,
  0.045125,
  0.045125,
  0.045125,
  0.045125,
  0.045125,
  0.045125,
  0.045125,
  0.045125,
  0.045125,
  0.045125,
  0.045125,
  0.045125,
  0.045125,
  0.045125,
  0.045125,
  0.045125,
  0.045125,
  0.045125,
  0.045125,
  0.045125,
  0.045125,
  0.045125,
  0.045125,
  0.045125,
  0.045125,
  0.045125,
  0.045125,
  0.04286875,
  0.04286875,
  0.04286875,
  0.04286875,
  0.04286875,
  0.04286875,
  0.04286875,
  0.04286875,
  0.04286875,
  0.04286875,
  0.04286875,
  0.04286875,
  0.04286875,
  0.04286875,
  0.04286875,
  0.04286875,
  0.04286875,
  0.04286875,
  0.04286875,
  0.04286875,
  0.04286875,
  0.04286875,
  0.04286875,
  0.04286875,
  0.04286875,
  0.04286875,
  0.04286875,
  0.04286875,
  0.04286875,
  0.04286875,
  0.04072531249999999,
  0.04072531249999999,
  0.04072531249999999,
  0.04072531249999999,
  0.04072531249999999,
  0.04072531249999999,
  0.04072531249999999,
  0.04072531249999999,
  0.04072531249999999,
  0.04072531249999999,
  0.04072531249999999,
  0.04072531249999999,
  0.04072531249999999,
  0.04072531249999999,
  0.04072531249999999,
  0.04072531249999999,
  0.04072531249999999,
  0.04072531249999999,
  0.04072531249999999,
  0.04072531249999999,
  0.04072531249999999,
  0.04072531249999999,
  0.04072531249999999,
  0.04072531249999999,
  0.04072531249999999,
  0.04072531249999999,
  0.04072531249999999,
  0.04072531249999999,
  0.04072531249999999,
  0.04072531249999999,
  0.038689046874999994,
  0.038689046874999994,
  0.038689046874999994,
  0.038689046874999994,
  0.038689046874999994,
  0.038689046874999994,
  0.038689046874999994,
  0.038689046874999994,
  0.038689046874999994,
  0.038689046874999994,
  0.038689046874999994,
  0.038689046874999994,
  0.038689046874999994,
  0.038689046874999994,
  0.038689046874999994,
  0.038689046874999994,
  0.038689046874999994,
  0.038689046874999994,
  0.038689046874999994,
  0.038689046874999994,
  0.038689046874999994,
  0.038689046874999994,
  0.038689046874999994,
  0.038689046874999994,
  0.038689046874999994,
  0.038689046874999994,
  0.038689046874999994,
  0.038689046874999994,
  0.038689046874999994,
  0.038689046874999994,
  0.03675459453124999,
  0.03675459453124999,
  0.03675459453124999,
  0.03675459453124999,
  0.03675459453124999,
  0.03675459453124999,
  0.03675459453124999,
  0.03675459453124999,
  0.03675459453124999,
  0.03675459453124999,
  0.03675459453124999,
  0.03675459453124999,
  0.03675459453124999,
  0.03675459453124999,
  0.03675459453124999,
  0.03675459453124999,
  0.03675459453124999,
  0.03675459453124999,
  0.03675459453124999,
  0.03675459453124999,
  0.03675459453124999,
  0.03675459453124999,
  0.03675459453124999,
  0.03675459453124999,
  0.03675459453124999,
  0.03675459453124999,
  0.03675459453124999,
  0.03675459453124999,
  0.03675459453124999,
  0.03675459453124999,
  0.03491686480468749,
  0.03491686480468749,
  0.03491686480468749,
  0.03491686480468749,
  0.03491686480468749,
  0.03491686480468749,
  0.03491686480468749,
  0.03491686480468749,
  0.03491686480468749,
  0.03491686480468749,
  0.03491686480468749,
  0.03491686480468749,
  0.03491686480468749,
  0.03491686480468749,
  0.03491686480468749,
  0.03491686480468749,
  0.03491686480468749,
  0.03491686480468749,
  0.03491686480468749,
  0.03491686480468749,
  0.03491686480468749,
  0.03491686480468749,
  0.03491686480468749,
  0.03491686480468749,
  0.03491686480468749,
  0.03491686480468749,
  0.03491686480468749,
  0.03491686480468749,
  0.03491686480468749,
  0.03491686480468749
 ],
 "PositionEnergy_weight": [
  0.949999988079071,
  0.9634231925010681,
  0.9963079690933228,
  1.0342398881912231,
  1.0745666027069092,
  1.116929292678833,
  1.161118984222412,
  1.2071363925933838,
  1.2524603605270386,
  1.299605369567871,
  1.3478012084960938,
  1.3956661224365234,
  1.4421621561050415,
  1.4874286651611328,
  1.5298850536346436,
  1.5709309577941895,
  1.6121238470077515,
  1.653484582901001,
  1.695945382118225,
  1.7396750450134277,
  1.7850700616836548,
  1.83107590675354,
  1.8775269985198975,
  1.9238454103469849,
  1.9666359424591064,
  2.0064539909362793,
  2.0434446334838867,
  2.0777318477630615,
  2.109555959701538,
  2.1389527320861816,
  2.163424253463745,
  2.184753656387329,
  2.203110933303833,
  2.2190101146698,
  2.233407974243164,
  2.247088670730591,
  2.260814905166626,
  2.275779962539673,
  2.2963085174560547,
  2.323054313659668,
  2.3544538021087646,
  2.388625144958496,
  2.423327922821045,
  2.457205057144165,
  2.4889767169952393,
  2.517803907394409,
  2.5444560050964355,
  2.5694994926452637,
  2.592689037322998,
  2.6150705814361572,
  2.636765241622925,
  2.658177614212036,
  2.6798670291900635,
  2.7019002437591553,
  2.722555637359619,
  2.7419931888580322,
  2.7604246139526367,
  2.7774722576141357,
  2.793595552444458,
  2.8091795444488525,
  2.8230226039886475,
  2.836505174636841,
  2.849614381790161,
  2.862398624420166,
  2.8747973442077637,
  2.8871748447418213,
  2.9001643657684326,
  2.9137465953826904,
  2.929476261138916,
  2.947322368621826,
  2.9661617279052734,
  2.985882520675659,
  3.005585193634033,
  3.024958610534668,
  3.0443410873413086,
  3.0624938011169434,
  3.0814919471740723,
  3.101454496383667,
  3.1216228008270264,
  3.141969680786133,
  3.1618223190307617,
  3.1802456378936768,
  3.1975748538970947,
  3.2137584686279297,
  3.2283387184143066,
  3.2421939373016357,
  3.255277156829834,
  3.2675013542175293,
  3.2786757946014404,
  3.2891080379486084,
  3.296895980834961,
  3.3027760982513428,
  3.3065648078918457,
  3.3098082542419434,
  3.3126392364501953,
  3.31606388092041,
  3.321013927459717,
  3.327949047088623,
  3.341562509536743,
  3.360973596572876,
  3.3833508491516113,
  3.406947135925293,
  3.4284861087799072,
  3.4460794925689697,
  3.4595837593078613,
  3.4691076278686523,
  3.4788503646850586,
  3.48958158493042,
  3.5010523796081543,
  3.5139048099517822,
  3.5272457599639893,
  3.541093349456787,
  3.5546493530273438,
  3.5669870376586914,
  3.578460931777954,
  3.5888214111328125,
  3.598503351211548,
  3.6074090003967285,
  3.6158320903778076,
  3.6233973503112793,
  3.62893009185791,
  3.632941722869873,
  3.635563611984253,
  3.6378746032714844,
  3.6400651931762695,
  3.6426892280578613,
  3.646477460861206,
  3.6516406536102295,
  3.6617090702056885,
  3.676072597503662,
  3.6927545070648193,
  3.7108006477355957,
  3.7283389568328857,
  3.7442078590393066,
  3.758366346359253,
  3.77282977104187,
  3.786351442337036,
  3.799089193344116,
  3.8101303577423096,
  3.820329189300537,
  3.8307981491088867,
  3.840970516204834,
  3.8513967990875244,
  3.8610472679138184,
  3.86975359916687,
  3.877732038497925,
  3.8853094577789307,
  3.8921711444854736,
  3.8984739780426025,
  3.904562473297119,
  3.9105355739593506,
  3.9170072078704834,
  3.9240291118621826,
  3.9307806491851807,
  3.937833309173584,
  3.945164680480957,
  3.952981472015381,
  3.961245059967041,
  3.971454620361328,
  3.9833712577819824,
  3.9951107501983643,
  4.006945610046387,
  4.018405914306641,
  4.030174255371094,
  4.041007995605469,
  4.051035404205322,
  4.06190824508667,
  4.073023319244385,
  4.085018157958984,
  4.097585201263428,
  4.109706401824951,
  4.121443748474121,
  4.132115364074707,
  4.141211032867432,
  4.14936637878418,
  4.156840801239014,
  4.163689613342285,
  4.170065402984619,
  4.175915241241455,
  4.181308746337891,
  4.184452533721924,
  4.186115264892578,
  4.186827182769775,
  4.186479091644287,
  4.186239719390869,
  4.186589241027832,
  4.188344478607178,
  4.19148588180542,
  4.1980299949646,
  4.208041667938232,
  4.221088886260986,
  4.236480712890625,
  4.252241611480713,
  4.266458511352539,
  4.278053283691406,
  4.2873454093933105,
  4.29637336730957,
  4.304968357086182,
  4.31378173828125,
  4.3229169845581055,
  4.332235336303711,
  4.340956687927246,
  4.348823070526123,
  4.356245517730713,
  4.362984657287598,
  4.368741035461426,
  4.374200344085693,
  4.379303932189941,
  4.383782386779785,
  4.387803554534912,
  4.390228748321533,
  4.39146614074707,
  4.391966819763184,
  4.392392635345459,
  4.392746925354004,
  4.3935227394104,
  4.395307540893555,
  4.398127555847168,
  4.4047532081604,
  4.4147186279296875,
  4.426758289337158,
  4.439330577850342,
  4.452408790588379,
  4.46488094329834,
  4.475741863250732,
  4.484732151031494,
  4.4937334060668945,
  4.502549648284912,
  4.510542869567871,
  4.5180277824401855,
  4.524322509765625,
  4.529898643493652,
  4.535374164581299,
  4.540499687194824,
  4.544946670532227,
  4.549123287200928,
  4.553215503692627,
  4.55722188949585,
  4.560739994049072,
  4.563805103302002
 ],
 "SizeEnergy_weight": [
  0.949999988079071,
  0.8999388813972473,
  0.849871039390564,
  0.8012926578521729,
  0.7600031495094299,
  0.73469477891922,
  0.729221522808075,
  0.7400391101837158,
  0.7643128633499146,
  0.7942670583724976,
  0.8240700960159302,
  0.8477230668067932,
  0.8630706071853638,
  0.8700103163719177,
  0.8667786121368408,
  0.8573716878890991,
  0.8466824293136597,
  0.8351961970329285,
  0.8266324400901794,
  0.8218833208084106,
  0.8225818872451782,
  0.8264050483703613,
  0.8336114287376404,
  0.8421128988265991,
  0.8492664098739624,
  0.8556890487670898,
  0.8607633709907532,
  0.8645572066307068,
  0.8670236468315125,
  0.8682624697685242,
  0.8629265427589417,
  0.8527065515518188,
  0.8374961018562317,
  0.8180626630783081,
  0.7961392998695374,
  0.7734676599502563,
  0.751495361328125,
  0.7324178814888,
  0.7229146361351013,
  0.7254862785339355,
  0.7366300225257874,
  0.7524216771125793,
  0.7688831686973572,
  0.7829805612564087,
  0.7908529043197632,
  0.7923561930656433,
  0.7900330424308777,
  0.7845693230628967,
  0.775871992111206,
  0.7660465836524963,
  0.755959153175354,
  0.7461575269699097,
  0.7366202473640442,
  0.7280945181846619,
  0.7205796241760254,
  0.7140990495681763,
  0.7086957693099976,
  0.7032078504562378,
  0.6983894109725952,
  0.694703996181488,
  0.6896981596946716,
  0.6844768524169922,
  0.6786584854125977,
  0.6728129982948303,
  0.6661456227302551,
  0.659390926361084,
  0.6533727645874023,
  0.6484229564666748,
  0.6462839841842651,
  0.6468421816825867,
  0.6480364203453064,
  0.6506230235099792,
  0.6523051857948303,
  0.6526415944099426,
  0.6523668766021729,
  0.650065541267395,
  0.6498508453369141,
  0.6518886089324951,
  0.6543012261390686,
  0.6576325297355652,
  0.6611182689666748,
  0.6616976261138916,
  0.6602750420570374,
  0.657063364982605,
  0.652999997138977,
  0.6495321393013,
  0.646353542804718,
  0.6431311368942261,
  0.6390899419784546,
  0.6348963379859924,
  0.6267165541648865,
  0.6149936318397522,
  0.5997733473777771,
  0.583279013633728,
  0.565502405166626,
  0.5485818982124329,
  0.5344595909118652,
  0.5234940648078918,
  0.5232539176940918,
  0.5314556956291199,
  0.5441242456436157,
  0.5586169958114624,
  0.5690850019454956,
  0.5722693800926208,
  0.5677280426025391,
  0.5559042692184448,
  0.5448389053344727,
  0.5357620120048523,
  0.5287087559700012,
  0.52446049451828,
  0.5217352509498596,
  0.5201533436775208,
  0.5186551809310913,
  0.51510089635849,
  0.5117519497871399,
  0.5079202055931091,
  0.5042538642883301,
  0.5001691579818726,
  0.496228963136673,
  0.49217358231544495,
  0.48468878865242004,
  0.4741533696651459,
  0.46112579107284546,
  0.44725602865219116,
  0.4329245388507843,
  0.4191248118877411,
  0.40717506408691406,
  0.3968702554702759,
  0.3934946060180664,
  0.3968028128147125,
  0.4038112759590149,
  0.4132450222969055,
  0.4216475784778595,
  0.42707011103630066,
  0.4288349449634552,
  0.42965424060821533,
  0.4302736818790436,
  0.43052908778190613,
  0.4278193712234497,
  0.4240546226501465,
  0.4210103154182434,
  0.41922125220298767,
  0.41849687695503235,
  0.4180407226085663,
  0.41709139943122864,
  0.4158424437046051,
  0.4147057831287384,
  0.41317540407180786,
  0.4114772081375122,
  0.41027361154556274,
  0.40847885608673096,
  0.4064812958240509,
  0.40423643589019775,
  0.40094074606895447,
  0.3973611295223236,
  0.3935767114162445,
  0.3900719881057739,
  0.387035995721817,
  0.38687077164649963,
  0.3889998197555542,
  0.39034542441368103,
  0.3912302553653717,
  0.39125481247901917,
  0.39203858375549316,
  0.3911949694156647,
  0.389385461807251,
  0.38896363973617554,
  0.38910332322120667,
  0.39073726534843445,
  0.393399715423584,
  0.3957342803478241,
  0.39745622873306274,
  0.3973780870437622,
  0.39440885186195374,
  0.3909631371498108,
  0.3874436914920807,
  0.3836226761341095,
  0.3798016309738159,
  0.3758229911327362,
  0.37170442938804626,
  0.3642560839653015,
  0.3539554476737976,
  0.3416813015937805,
  0.3273352384567261,
  0.31266435980796814,
  0.2987033426761627,
  0.2865965962409973,
  0.27692198753356934,
  0.2720877528190613,
  0.27213895320892334,
  0.27731138467788696,
  0.28618475794792175,
  0.2956845462322235,
  0.3031328618526459,
  0.306744784116745,
  0.30694329738616943,
  0.306858628988266,
  0.30609259009361267,
  0.3052448630332947,
  0.30473950505256653,
  0.3046626150608063,
  0.30327045917510986,
  0.3006214201450348,
  0.29747965931892395,
  0.2942497432231903,
  0.29054296016693115,
  0.2873780131340027,
  0.28430595993995667,
  0.2808762788772583,
  0.27722904086112976,
  0.27086853981018066,
  0.2621338963508606,
  0.2518075704574585,
  0.24074888229370117,
  0.22916851937770844,
  0.2179381549358368,
  0.2080518901348114,
  0.19943688809871674,
  0.19680190086364746,
  0.2000582218170166,
  0.20666390657424927,
  0.21363401412963867,
  0.22077271342277527,
  0.22655950486660004,
  0.23077085614204407,
  0.23265473544597626,
  0.2350585162639618,
  0.23730789124965668,
  0.23777036368846893,
  0.2375425398349762,
  0.23501190543174744,
  0.23127616941928864,
  0.22753947973251343,
  0.22307239472866058,
  0.21839477121829987,
  0.21421432495117188,
  0.21065858006477356,
  0.20726150274276733,
  0.2032783180475235,
  0.19907087087631226
 ],
 "RatioEnergy_weight": [
  0.949999988079071,
  0.8999360203742981,
  0.8498304486274719,
  0.8007150292396545,
  0.7566381096839905,
  0.7235096096992493,
  0.7077314257621765,
  0.7085254192352295,
  0.7208104729652405,
  0.7383445501327515,
  0.7509093284606934,
  0.7553550601005554,
  0.7499350309371948,
  0.7357759475708008,
  0.713110089302063,
  0.6851671934127808,
  0.6594142317771912,
  0.635028600692749,
  0.6179714202880859,
  0.6078327894210815,
  0.6068564057350159,
  0.610781192779541,
  0.6194374561309814,
  0.6307445764541626,
  0.641596257686615,
  0.652087926864624,
  0.6619579792022705,
  0.6707674264907837,
  0.6787163019180298,
  0.6852934956550598,
  0.6847389340400696,
  0.6780585646629333,
  0.665687084197998,
  0.6489183902740479,
  0.6301159262657166,
  0.6100990772247314,
  0.5907666087150574,
  0.5742472410202026,
  0.5637185573577881,
  0.561372697353363,
  0.5638024210929871,
  0.5687759518623352,
  0.5730369687080383,
  0.572690486907959,
  0.5662974715232849,
  0.5545918345451355,
  0.5402287244796753,
  0.5243379473686218,
  0.5072135925292969,
  0.4911527633666992,
  0.4760991334915161,
  0.462144136428833,
  0.44972819089889526,
  0.4400021433830261,
  0.4318864047527313,
  0.4256851077079773,
  0.42117902636528015,
  0.4169207215309143,
  0.4136413037776947,
  0.4118100106716156,
  0.40792274475097656,
  0.4034048318862915,
  0.39776599407196045,
  0.3917536735534668,
  0.3847351372241974,
  0.37778136134147644,
  0.3718557357788086,
  0.3671214282512665,
  0.3629761338233948,
  0.3586767613887787,
  0.3528059720993042,
  0.3464881479740143,
  0.33812686800956726,
  0.3270872235298157,
  0.315349280834198,
  0.30028754472732544,
  0.2905673384666443,
  0.28467249870300293,
  0.28192511200904846,
  0.28145307302474976,
  0.28215691447257996,
  0.28108951449394226,
  0.27921122312545776,
  0.27739638090133667,
  0.2752054035663605,
  0.2739815413951874,
  0.2731117904186249,
  0.2723122537136078,
  0.27101776003837585,
  0.269530326128006,
  0.26362136006355286,
  0.25362834334373474,
  0.23963774740695953,
  0.22462649643421173,
  0.20873858034610748,
  0.19378948211669922,
  0.18137872219085693,
  0.17179559171199799,
  0.16936565935611725,
  0.17283953726291656,
  0.17799080908298492,
  0.1829373687505722,
  0.18452440202236176,
  0.17967425286769867,
  0.1682482659816742,
  0.15041762590408325,
  0.13539542257785797,
  0.12446454912424088,
  0.1170966625213623,
  0.1142733246088028,
  0.11374306678771973,
  0.11549240350723267,
  0.11873507499694824,
  0.12069561332464218,
  0.12251907587051392,
  0.1233857274055481,
  0.1241973340511322,
  0.12441135197877884,
  0.12477735430002213,
  0.12454204261302948,
  0.120195172727108,
  0.11227074265480042,
  0.10120096802711487,
  0.08880683779716492,
  0.0754995122551918,
  0.062251944094896317,
  0.05067475885152817,
  0.041129179298877716,
  0.03586724400520325,
  0.03459065407514572,
  0.034417033195495605,
  0.03603126108646393,
  0.036335188895463943,
  0.03471492603421211,
  0.03261307626962662,
  0.03573596850037575,
  0.0390450544655323,
  0.04325137659907341,
  0.042804405093193054,
  0.039489150047302246,
  0.038561396300792694,
  0.03924893960356712,
  0.042185984551906586,
  0.044441260397434235,
  0.04594063386321068,
  0.04712410271167755,
  0.048229046165943146,
  0.04876301437616348,
  0.04910697042942047,
  0.04999817535281181,
  0.04961566999554634,
  0.04849862679839134,
  0.04695144668221474,
  0.04401429370045662,
  0.04029812663793564,
  0.03646634519100189,
  0.03274361789226532,
  0.02919641323387623,
  0.026190875098109245,
  0.024133138358592987,
  0.02006877027451992,
  0.01476200483739376,
  0.008576944470405579,
  0.0011836527846753597,
  -0.008161917328834534,
  -0.019172601401805878,
  -0.026187613606452942,
  -0.030713332816958427,
  -0.031697168946266174,
  -0.029547391459345818,
  -0.02615807019174099,
  -0.021985121071338654,
  -0.01874777488410473,
  -0.01737832836806774,
  -0.01654798910021782,
  -0.01607814058661461,
  -0.015937555581331253,
  -0.016058826819062233,
  -0.01640554703772068,
  -0.016729949042201042,
  -0.021530359983444214,
  -0.029808690771460533,
  -0.04065056890249252,
  -0.054319530725479126,
  -0.06839334964752197,
  -0.08232247084379196,
  -0.09471078962087631,
  -0.1054060235619545,
  -0.11345124989748001,
  -0.11873454600572586,
  -0.12055574357509613,
  -0.12020484358072281,
  -0.11995101720094681,
  -0.12211748212575912,
  -0.12805570662021637,
  -0.13691698014736176,
  -0.14422175288200378,
  -0.14953304827213287,
  -0.15294349193572998,
  -0.1544523537158966,
  -0.1543056219816208,
  -0.15425032377243042,
  -0.15481722354888916,
  -0.1549869030714035,
  -0.1552320420742035,
  -0.1564025580883026,
  -0.1572365164756775,
  -0.15777847170829773,
  -0.159074068069458,
  -0.1608276665210724,
  -0.16587859392166138,
  -0.173688143491745,
  -0.18347670137882233,
  -0.19441938400268555,
  -0.206404447555542,
  -0.21825821697711945,
  -0.22911284863948822,
  -0.23889762163162231,
  -0.24484288692474365,
  -0.24714019894599915,
  -0.24698083102703094,
  -0.2468862533569336,
  -0.2457176297903061,
  -0.24603186547756195,
  -0.24863725900650024,
  -0.2537609338760376,
  -0.2563738524913788,
  -0.25759685039520264,
  -0.2591441571712494,
  -0.2599859833717346,
  -0.26218533515930176,
  -0.2644679546356201,
  -0.26610514521598816,
  -0.2679465115070343,
  -0.2701668441295624,
  -0.27215781807899475,
  -0.2734558582305908,
  -0.2743019461631775,
  -0.2759203314781189,
  -0.27805596590042114
 ],
 "AngleEnergy_weight": [
  0.949999988079071,
  0.9000582098960876,
  0.8502255082130432,
  0.8050541281700134,
  0.7764931917190552,
  0.7718243598937988,
  0.7864851951599121,
  0.8119379878044128,
  0.8449686169624329,
  0.8810053467750549,
  0.9159462451934814,
  0.9466403126716614,
  0.97169429063797,
  0.9897302985191345,
  0.9988291263580322,
  1.0016956329345703,
  1.0049853324890137,
  1.0097960233688354,
  1.0187311172485352,
  1.032361626625061,
  1.0514413118362427,
  1.0740447044372559,
  1.0994192361831665,
  1.126059651374817,
  1.1506972312927246,
  1.1738373041152954,
  1.195425271987915,
  1.215024709701538,
  1.2330256700515747,
  1.249445915222168,
  1.258264183998108,
  1.2615973949432373,
  1.2599772214889526,
  1.2538535594940186,
  1.2456552982330322,
  1.2366304397583008,
  1.2286635637283325,
  1.2247169017791748,
  1.2273706197738647,
  1.2396252155303955,
  1.2588413953781128,
  1.2818279266357422,
  1.3054996728897095,
  1.3271156549453735,
  1.3440556526184082,
  1.3561079502105713,
  1.3635973930358887,
  1.3679693937301636,
  1.369654655456543,
  1.370914340019226,
  1.3715664148330688,
  1.3729673624038696,
  1.3743174076080322,
  1.3774816989898682,
  1.3815100193023682,
  1.386117935180664,
  1.3915117979049683,
  1.3964418172836304,
  1.4017415046691895,
  1.4078853130340576,
  1.4126958847045898,
  1.4179261922836304,
  1.4231443405151367,
  1.4284178018569946,
  1.4334653615951538,
  1.4394241571426392,
  1.4469248056411743,
  1.4567159414291382,
  1.4679309129714966,
  1.4804542064666748,
  1.4930338859558105,
  1.505972146987915,
  1.5170652866363525,
  1.526698350906372,
  1.535000205039978,
  1.540723204612732,
  1.54883873462677,
  1.55878484249115,
  1.5693153142929077,
  1.5802792310714722,
  1.5912913084030151,
  1.600326418876648,
  1.608056664466858,
  1.613471269607544,
  1.6182892322540283,
  1.6236461400985718,
  1.6294376850128174,
  1.634817123413086,
  1.6397229433059692,
  1.644309163093567,
  1.6445225477218628,
  1.6417988538742065,
  1.6360418796539307,
  1.629793405532837,
  1.6228952407836914,
  1.6174299716949463,
  1.6151249408721924,
  1.6166760921478271,
  1.6268861293792725,
  1.6440904140472412,
  1.6649457216262817,
  1.68645179271698,
  1.7047415971755981,
  1.7167953252792358,
  1.7221235036849976,
  1.7205535173416138,
  1.7195508480072021,
  1.7202937602996826,
  1.7225713729858398,
  1.727249026298523,
  1.7330478429794312,
  1.740089774131775,
  1.7473119497299194,
  1.7527142763137817,
  1.7577248811721802,
  1.7622814178466797,
  1.7669551372528076,
  1.7711204290390015,
  1.7754143476486206,
  1.7790158987045288,
  1.7796008586883545,
  1.7778480052947998,
  1.773675560951233,
  1.769375205039978,
  1.7650114297866821,
  1.7617090940475464,
  1.761091709136963,
  1.7630819082260132,
  1.7702374458312988,
  1.782449722290039,
  1.7968392372131348,
  1.8126766681671143,
  1.827269196510315,
  1.838712215423584,
  1.8477836847305298,
  1.85944664478302,
  1.869634985923767,
  1.8788440227508545,
  1.8838045597076416,
  1.8858766555786133,
  1.8886045217514038,
  1.8916411399841309,
  1.8953173160552979,
  1.8984259366989136,
  1.9009696245193481,
  1.9032307863235474,
  1.9057451486587524,
  1.9078620672225952,
  1.9099372625350952,
  1.9123955965042114,
  1.9154406785964966,
  1.9198317527770996,
  1.9253442287445068,
  1.9303120374679565,
  1.9361602067947388,
  1.9427762031555176,
  1.9500757455825806,
  1.9588916301727295,
  1.9690985679626465,
  1.9801665544509888,
  1.9894822835922241,
  1.9969749450683594,
  2.003505229949951,
  2.009575605392456,
  2.0132386684417725,
  2.014943838119507,
  2.0183212757110596,
  2.022854804992676,
  2.028918981552124,
  2.0363247394561768,
  2.0436384677886963,
  2.0501346588134766,
  2.0551552772521973,
  2.0579731464385986,
  2.060422420501709,
  2.0629401206970215,
  2.065295934677124,
  2.0675406455993652,
  2.0697038173675537,
  2.0717825889587402,
  2.070200204849243,
  2.0663185119628906,
  2.0609021186828613,
  2.053570032119751,
  2.046422004699707,
  2.040717124938965,
  2.0376904010772705,
  2.0371391773223877,
  2.040192127227783,
  2.046468734741211,
  2.0559678077697754,
  2.0681588649749756,
  2.0802314281463623,
  2.0893983840942383,
  2.094677686691284,
  2.096696615219116,
  2.0987563133239746,
  2.10111403465271,
  2.1034188270568848,
  2.106159210205078,
  2.109070301055908,
  2.1112608909606934,
  2.112119197845459,
  2.112675189971924,
  2.113258123397827,
  2.1135036945343018,
  2.1143906116485596,
  2.1157476902008057,
  2.1167166233062744,
  2.117692232131958,
  2.1162021160125732,
  2.1123971939086914,
  2.107905626296997,
  2.103574752807617,
  2.0994057655334473,
  2.096071720123291,
  2.0946578979492188,
  2.095475912094116,
  2.0996792316436768,
  2.1075682640075684,
  2.1172869205474854,
  2.127403736114502,
  2.136751651763916,
  2.1441712379455566,
  2.148967742919922,
  2.1508805751800537,
  2.1531982421875,
  2.1552071571350098,
  2.1555707454681396,
  2.1555495262145996,
  2.15351939201355,
  2.1505515575408936,
  2.1477811336517334,
  2.1446847915649414,
  2.1415693759918213,
  2.13910174369812,
  2.1375904083251953,
  2.136810779571533,
  2.135620355606079,
  2.1343348026275635
 ],
 "OverlapPriorEnergy_weight": [
  1.0499999523162842,
  1.0993553400039673,
  1.1481928825378418,
  1.1974701881408691,
  1.2472552061080933,
  1.2974809408187866,
  1.3479037284851074,
  1.3986772298812866,
  1.4473915100097656,
  1.4966543912887573,
  1.5469536781311035,
  1.5981813669204712,
  1.650190830230713,
  1.7027252912521362,
  1.7559516429901123,
  1.8095157146453857,
  1.8622783422470093,
  1.9147530794143677,
  1.9666367769241333,
  2.017848253250122,
  2.068413734436035,
  2.1187148094177246,
  2.168525457382202,
  2.217895030975342,
  2.2633156776428223,
  2.305013656616211,
  2.343322515487671,
  2.378506898880005,
  2.410820960998535,
  2.440396308898926,
  2.468282461166382,
  2.496021270751953,
  2.5239031314849854,
  2.5517964363098145,
  2.5800039768218994,
  2.6082019805908203,
  2.636418581008911,
  2.6645662784576416,
  2.696782112121582,
  2.7315762042999268,
  2.7689268589019775,
  2.808591604232788,
  2.850609540939331,
  2.8944108486175537,
  2.9398419857025146,
  2.986736536026001,
  3.0331428050994873,
  3.0795552730560303,
  3.125899076461792,
  3.1721718311309814,
  3.2181737422943115,
  3.263568162918091,
  3.308546304702759,
  3.3535213470458984,
  3.394767999649048,
  3.432399272918701,
  3.46683931350708,
  3.498553991317749,
  3.5276644229888916,
  3.5543603897094727,
  3.579932928085327,
  3.605339527130127,
  3.63075852394104,
  3.6560006141662598,
  3.6812045574188232,
  3.70648455619812,
  3.7313363552093506,
  3.756282091140747,
  3.784985065460205,
  3.8169643878936768,
  3.8518970012664795,
  3.888664722442627,
  3.9273464679718018,
  3.9677841663360596,
  4.0094313621521,
  4.052886962890625,
  4.095546722412109,
  4.137563228607178,
  4.179173946380615,
  4.2201433181762695,
  4.26064395904541,
  4.301156997680664,
  4.341318130493164,
  4.381211280822754,
  4.417603969573975,
  4.450730323791504,
  4.48087739944458,
  4.508376121520996,
  4.5336151123046875,
  4.556737899780273,
  4.578672409057617,
  4.60062837600708,
  4.622744560241699,
  4.6447906494140625,
  4.666952133178711,
  4.688985347747803,
  4.710381507873535,
  4.7313408851623535,
  4.754354953765869,
  4.779293537139893,
  4.806046962738037,
  4.834733486175537,
  4.865899085998535,
  4.899409294128418,
  4.93476676940918,
  4.972251892089844,
  5.009186267852783,
  5.045180320739746,
  5.080517292022705,
  5.1150102615356445,
  5.149404525756836,
  5.183337688446045,
  5.21703577041626,
  5.25066614151001,
  5.281221389770508,
  5.309069633483887,
  5.334440231323242,
  5.357584476470947,
  5.3786301612854,
  5.398021697998047,
  5.416585922241211,
  5.43519926071167,
  5.453974723815918,
  5.472611904144287,
  5.491148948669434,
  5.509439468383789,
  5.527487754821777,
  5.545287609100342,
  5.565001964569092,
  5.586529731750488,
  5.609835624694824,
  5.634664535522461,
  5.661337375640869,
  5.689769268035889,
  5.71976375579834,
  5.75137996673584,
  5.782712936401367,
  5.813961029052734,
  5.845335483551025,
  5.876564025878906,
  5.9074554443359375,
  5.937984943389893,
  5.9679975509643555,
  5.997594356536865,
  6.024613380432129,
  6.049154758453369,
  6.0714335441589355,
  6.0917205810546875,
  6.1102776527404785,
  6.127187728881836,
  6.142936706542969,
  6.158470630645752,
  6.1736741065979,
  6.18876838684082,
  6.203519821166992,
  6.218092441558838,
  6.232418060302734,
  6.246511459350586,
  6.262740135192871,
  6.280478477478027,
  6.300105571746826,
  6.321314334869385,
  6.344014644622803,
  6.367793560028076,
  6.392833709716797,
  6.418976783752441,
  6.444539546966553,
  6.469918727874756,
  6.494970321655273,
  6.519634246826172,
  6.544272422790527,
  6.568647861480713,
  6.5929274559021,
  6.617456912994385,
  6.639832973480225,
  6.660210609436035,
  6.678726673126221,
  6.695576190948486,
  6.710947513580322,
  6.7250165939331055,
  6.738434791564941,
  6.752048492431641,
  6.765681743621826,
  6.779355049133301,
  6.792971134185791,
  6.80640172958374,
  6.819461345672607,
  6.832173824310303,
  6.846562385559082,
  6.86235237121582,
  6.879244804382324,
  6.897130489349365,
  6.916316032409668,
  6.936861515045166,
  6.95875883102417,
  6.98195219039917,
  7.004965305328369,
  7.027821063995361,
  7.050233364105225,
  7.07241153717041,
  7.094284534454346,
  7.116081714630127,
  7.137814521789551,
  7.1595306396484375,
  7.179370403289795,
  7.1974778175354,
  7.213927268981934,
  7.228912353515625,
  7.242572784423828,
  7.2550129890441895,
  7.267017364501953,
  7.2789812088012695,
  7.290981292724609,
  7.302959442138672,
  7.314740180969238,
  7.3264384269714355,
  7.337849140167236,
  7.34902286529541,
  7.3616156578063965,
  7.37559175491333,
  7.390699863433838,
  7.4071946144104,
  7.424604892730713,
  7.443192481994629,
  7.462813377380371,
  7.48337984085083,
  7.5037312507629395,
  7.523995876312256,
  7.544210910797119,
  7.564402103424072,
  7.584515571594238,
  7.604682922363281,
  7.6245951652526855,
  7.644392013549805,
  7.66241455078125,
  7.678778648376465,
  7.693650722503662,
  7.70712423324585,
  7.719475269317627,
  7.730772495269775
 ],
 "AlignmentPriorEnergy_weight": [
  0.949999988079071,
  0.8999910354614258,
  0.8499664068222046,
  0.8029117584228516,
  0.766089141368866,
  0.7504491209983826,
  0.7576467990875244,
  0.7778486013412476,
  0.8078985214233398,
  0.8424643278121948,
  0.8755100965499878,
  0.9030380845069885,
  0.922421395778656,
  0.9330658912658691,
  0.9327800273895264,
  0.9259045720100403,
  0.9203149676322937,
  0.9152570962905884,
  0.9141349196434021,
  0.9167978763580322,
  0.9251881837844849,
  0.9366714358329773,
  0.9519366025924683,
  0.9690959453582764,
  0.9849211573600769,
  0.9994437098503113,
  1.0124489068984985,
  1.023939609527588,
  1.033955454826355,
  1.0428282022476196,
  1.0442981719970703,
  1.0399538278579712,
  1.0301836729049683,
  1.0157631635665894,
  0.998479425907135,
  0.9800403714179993,
  0.9624987840652466,
  0.9476802945137024,
  0.9411851763725281,
  0.9459148049354553,
  0.9585562348365784,
  0.9752074480056763,
  0.9913645386695862,
  1.004014015197754,
  1.0103965997695923,
  1.0095633268356323,
  1.0060577392578125,
  1.0001729726791382,
  0.9912536144256592,
  0.9818833470344543,
  0.9723042249679565,
  0.9629101753234863,
  0.9537391066551208,
  0.9452791213989258,
  0.9376246333122253,
  0.9303625822067261,
  0.9237962961196899,
  0.9173840284347534,
  0.9114509224891663,
  0.9062636494636536,
  0.8994688987731934,
  0.8930363655090332,
  0.886085569858551,
  0.8791530728340149,
  0.8713218569755554,
  0.8633464574813843,
  0.8564773797988892,
  0.850592851638794,
  0.8465011715888977,
  0.8442991375923157,
  0.8422080278396606,
  0.8406886458396912,
  0.8374537825584412,
  0.8325831890106201,
  0.8257186412811279,
  0.8159859776496887,
  0.8092142343521118,
  0.8050575852394104,
  0.8026620745658875,
  0.8006079196929932,
  0.7999200224876404,
  0.797490119934082,
  0.7939520478248596,
  0.7896776795387268,
  0.7848740816116333,
  0.7801163196563721,
  0.775112509727478,
  0.7702617049217224,
  0.7648720741271973,
  0.7589245438575745,
  0.7491989135742188,
  0.7361452579498291,
  0.7195426821708679,
  0.7020772099494934,
  0.683804452419281,
  0.6669315099716187,
  0.6534488201141357,
  0.6436558961868286,
  0.6447290778160095,
  0.6545849442481995,
  0.6685850620269775,
  0.6835018396377563,
  0.6940065622329712,
  0.6966602802276611,
  0.6915997266769409,
  0.6790435314178467,
  0.6685553193092346,
  0.6608307361602783,
  0.6558932662010193,
  0.6541004776954651,
  0.6540082097053528,
  0.655072808265686,
  0.6567756533622742,
  0.656956672668457,
  0.6566879153251648,
  0.6552441716194153,
  0.65313720703125,
  0.6501252055168152,
  0.6467296481132507,
  0.642800509929657,
  0.635587751865387,
  0.6255796551704407,
  0.6129270792007446,
  0.5996015071868896,
  0.5857927799224854,
  0.5725056529045105,
  0.5611805319786072,
  0.5521112680435181,
  0.5495315194129944,
  0.5531204342842102,
  0.5590495467185974,
  0.5669240951538086,
  0.5727584958076477,
  0.5755651593208313,
  0.5740668773651123,
  0.572809100151062,
  0.5712308883666992,
  0.5688015818595886,
  0.5640645027160645,
  0.5591945648193359,
  0.5554383397102356,
  0.5520876049995422,
  0.5503504276275635,
  0.5487788319587708,
  0.5468471050262451,
  0.5448082089424133,
  0.5427163243293762,
  0.5398315787315369,
  0.5363472700119019,
  0.5328671932220459,
  0.5294666886329651,
  0.5261383056640625,
  0.5231133103370667,
  0.5196520090103149,
  0.5162118077278137,
  0.512781023979187,
  0.5101497769355774,
  0.5082973837852478,
  0.50860595703125,
  0.5106196999549866,
  0.5116006135940552,
  0.5117154121398926,
  0.5112972259521484,
  0.5111498236656189,
  0.508860170841217,
  0.5048708319664001,
  0.5030442476272583,
  0.5023889541625977,
  0.5038465261459351,
  0.5071084499359131,
  0.5109841227531433,
  0.5153422951698303,
  0.5183250904083252,
  0.5193525552749634,
  0.5192091464996338,
  0.5184105634689331,
  0.516672670841217,
  0.5143325328826904,
  0.5114622116088867,
  0.5082440376281738,
  0.5015963912010193,
  0.4920862913131714,
  0.4806462824344635,
  0.4675143361091614,
  0.45483091473579407,
  0.4428061544895172,
  0.4328543543815613,
  0.42489928007125854,
  0.4213174879550934,
  0.4220820367336273,
  0.4271090626716614,
  0.4352520704269409,
  0.44309937953948975,
  0.44748222827911377,
  0.4475470781326294,
  0.4432598948478699,
  0.4400329291820526,
  0.4380163550376892,
  0.43748316168785095,
  0.43819311261177063,
  0.4406284987926483,
  0.44259241223335266,
  0.44351068139076233,
  0.44485458731651306,
  0.4452235996723175,
  0.44460105895996094,
  0.44359228014945984,
  0.4422093629837036,
  0.4402308464050293,
  0.4376128315925598,
  0.4323562681674957,
  0.42475947737693787,
  0.415457159280777,
  0.40571272373199463,
  0.39550819993019104,
  0.3856121003627777,
  0.3769505023956299,
  0.36947137117385864,
  0.3671829402446747,
  0.3692263662815094,
  0.37395426630973816,
  0.37887629866600037,
  0.38384103775024414,
  0.3870743215084076,
  0.3876912295818329,
  0.3850582242012024,
  0.38397547602653503,
  0.3833320438861847,
  0.38255932927131653,
  0.3824303150177002,
  0.38117408752441406,
  0.37965765595436096,
  0.378338098526001,
  0.37704578042030334,
  0.37486326694488525,
  0.3721233606338501,
  0.3693666458129883,
  0.36672693490982056,
  0.3633255064487457,
  0.3594052493572235
 ],
 "AreaPriorEnergy_weight": [
  1.0499999523162842,
  1.0987266302108765,
  1.1433295011520386,
  1.185958743095398,
  1.225661277770996,
  1.2624868154525757,
  1.2955259084701538,
  1.3254348039627075,
  1.3362804651260376,
  1.3337559700012207,
  1.3205667734146118,
  1.2989646196365356,
  1.2704310417175293,
  1.2377023696899414,
  1.2020857334136963,
  1.1629353761672974,
  1.1250091791152954,
  1.0892711877822876,
  1.0560640096664429,
  1.0244975090026855,
  0.9926869869232178,
  0.9604074954986572,
  0.9294827580451965,
  0.8996074795722961,
  0.8706989884376526,
  0.8414927124977112,
  0.8117133378982544,
  0.7803771495819092,
  0.7496397495269775,
  0.7196933031082153,
  0.6988276839256287,
  0.6879449486732483,
  0.6840874552726746,
  0.6871238350868225,
  0.692031741142273,
  0.6994836330413818,
  0.7090098261833191,
  0.7198970913887024,
  0.7150172591209412,
  0.698722243309021,
  0.672245442867279,
  0.6387221813201904,
  0.599216103553772,
  0.5550202131271362,
  0.5083814859390259,
  0.46205997467041016,
  0.4248639643192291,
  0.39273855090141296,
  0.369407057762146,
  0.35249972343444824,
  0.3464442789554596,
  0.34773311018943787,
  0.3525097370147705,
  0.360934317111969,
  0.36680737137794495,
  0.37202876806259155,
  0.37639716267585754,
  0.38034287095069885,
  0.3843401074409485,
  0.38700243830680847,
  0.38963237404823303,
  0.39039403200149536,
  0.3902410864830017,
  0.39086779952049255,
  0.3910895884037018,
  0.389752060174942,
  0.3865892291069031,
  0.38003504276275635,
  0.36713889241218567,
  0.3534075617790222,
  0.3401001989841461,
  0.327548623085022,
  0.3189230263233185,
  0.3107621371746063,
  0.3006367087364197,
  0.29249539971351624,
  0.2927500307559967,
  0.29934608936309814,
  0.3060428500175476,
  0.3175603747367859,
  0.33545464277267456,
  0.3566126525402069,
  0.37952563166618347,
  0.4033212959766388,
  0.4253835380077362,
  0.44463759660720825,
  0.4609706401824951,
  0.47639963030815125,
  0.4884676933288574,
  0.49747195839881897,
  0.5042759776115417,
  0.5097185969352722,
  0.5144482254981995,
  0.5158915519714355,
  0.516909658908844,
  0.5189586877822876,
  0.5234457850456238,
  0.5281862020492554,
  0.5217461585998535,
  0.5054618120193481,
  0.4835216999053955,
  0.4572543799877167,
  0.43021947145462036,
  0.4034038186073303,
  0.3794940412044525,
  0.3566305935382843,
  0.34070077538490295,
  0.33194202184677124,
  0.3288628160953522,
  0.3272314965724945,
  0.32678738236427307,
  0.32854294776916504,
  0.3346690237522125,
  0.344834566116333,
  0.357054203748703,
  0.3701397776603699,
  0.38115382194519043,
  0.39088618755340576,
  0.40112435817718506,
  0.41053271293640137,
  0.4108205735683441,
  0.4109935760498047,
  0.4076801836490631,
  0.40166494250297546,
  0.3932640552520752,
  0.3834061026573181,
  0.3705235719680786,
  0.3535926938056946,
  0.33241480588912964,
  0.30923059582710266,
  0.287301629781723,
  0.26324662566185,
  0.233194962143898,
  0.18947920203208923,
  0.12928247451782227,
  0.0706273689866066,
  0.01848280429840088,
  -0.03652023524045944,
  -0.022223038598895073,
  0.02340606041252613,
  0.0625373125076294,
  0.09893154352903366,
  0.13261209428310394,
  0.16456812620162964,
  0.19362258911132812,
  0.22009211778640747,
  0.244071826338768,
  0.2659420669078827,
  0.28582316637039185,
  0.3038751184940338,
  0.31921064853668213,
  0.33279043436050415,
  0.3447098433971405,
  0.35530075430870056,
  0.3645935654640198,
  0.37278640270233154,
  0.38003304600715637,
  0.386426717042923,
  0.39202138781547546,
  0.397053062915802,
  0.4015679955482483,
  0.4055386185646057,
  0.40910524129867554,
  0.412402868270874,
  0.41537249088287354,
  0.41814127564430237,
  0.4207291007041931,
  0.423272967338562,
  0.42566969990730286,
  0.4280373454093933,
  0.43014249205589294,
  0.43212029337882996,
  0.43405207991600037,
  0.4358360767364502,
  0.43747153878211975,
  0.438924640417099,
  0.44028493762016296,
  0.4415224492549896,
  0.4426594376564026,
  0.4436778426170349,
  0.44447410106658936,
  0.4449496269226074,
  0.44516581296920776,
  0.4452851414680481,
  0.44520625472068787,
  0.4449376165866852,
  0.4444998502731323,
  0.44400954246520996,
  0.443426251411438,
  0.4427359402179718,
  0.4421183168888092,
  0.4413142502307892,
  0.4404967427253723,
  0.4398459792137146,
  0.43950045108795166,
  0.43943455815315247,
  0.43949809670448303,
  0.43975669145584106,
  0.4400811791419983,
  0.4403611421585083,
  0.440616250038147,
  0.44089704751968384,
  0.4413140118122101,
  0.44164472818374634,
  0.4419221878051758,
  0.4422752857208252,
  0.44262951612472534,
  0.44297152757644653,
  0.4433344602584839,
  0.44373610615730286,
  0.4438536465167999,
  0.4439810812473297,
  0.44388481974601746,
  0.44344988465309143,
  0.4430268406867981,
  0.4425663948059082,
  0.4420204758644104,
  0.44128769636154175,
  0.4405321776866913,
  0.43973061442375183,
  0.43886974453926086,
  0.4378749430179596,
  0.4369664788246155,
  0.43606001138687134,
  0.4352071285247803,
  0.4345821142196655,
  0.43433621525764465,
  0.43417948484420776,
  0.43417662382125854,
  0.43427136540412903,
  0.4344208538532257,
  0.43466365337371826,
  0.43493330478668213,
  0.4352889955043793,
  0.4356660544872284,
  0.436039537191391,
  0.4363943040370941,
  0.43670880794525146,
  0.43696823716163635,
  0.43729642033576965
 ],
 "RatioPriorEnergy_weight": [
  1.0499999523162842,
  1.0999082326889038,
  1.1499607563018799,
  1.1991604566574097,
  1.2465648651123047,
  1.2908830642700195,
  1.3305436372756958,
  1.3647249937057495,
  1.3689022064208984,
  1.363570213317871,
  1.3574323654174805,
  1.3559913635253906,
  1.3617132902145386,
  1.3740003108978271,
  1.3947392702102661,
  1.4201079607009888,
  1.4477406740188599,
  1.4758737087249756,
  1.5038042068481445,
  1.5297877788543701,
  1.5531281232833862,
  1.5747758150100708,
  1.5950571298599243,
  1.6141983270645142,
  1.631916880607605,
  1.647702932357788,
  1.6624679565429688,
  1.676574468612671,
  1.6902154684066772,
  1.7035846710205078,
  1.7199479341506958,
  1.7388434410095215,
  1.7604129314422607,
  1.7841954231262207,
  1.80927574634552,
  1.8346836566925049,
  1.8597661256790161,
  1.8831231594085693,
  1.8933794498443604,
  1.8891010284423828,
  1.8747892379760742,
  1.8546046018600464,
  1.8341072797775269,
  1.8147785663604736,
  1.8004049062728882,
  1.7927392721176147,
  1.789255976676941,
  1.7886786460876465,
  1.7922319173812866,
  1.7977712154388428,
  1.8052998781204224,
  1.8133057355880737,
  1.8218646049499512,
  1.8303121328353882,
  1.8379400968551636,
  1.8451167345046997,
  1.8514666557312012,
  1.857322335243225,
  1.8624483346939087,
  1.8666136264801025,
  1.871677279472351,
  1.877181053161621,
  1.8826789855957031,
  1.8888276815414429,
  1.8951493501663208,
  1.9015061855316162,
  1.907564640045166,
  1.9128854274749756,
  1.9140801429748535,
  1.9106698036193848,
  1.905550241470337,
  1.8981614112854004,
  1.890959620475769,
  1.883847713470459,
  1.8771016597747803,
  1.8715405464172363,
  1.8669408559799194,
  1.862085223197937,
  1.857243299484253,
  1.8526726961135864,
  1.8491195440292358,
  1.8473199605941772,
  1.8474160432815552,
  1.849284052848816,
  1.8518112897872925,
  1.8538761138916016,
  1.855857014656067,
  1.8579765558242798,
  1.8606997728347778,
  1.8638256788253784,
  1.8690837621688843,
  1.8761082887649536,
  1.8847254514694214,
  1.8942381143569946,
  1.90444016456604,
  1.9140019416809082,
  1.922637701034546,
  1.9298943281173706,
  1.9243204593658447,
  1.9081400632858276,
  1.8864555358886719,
  1.8622357845306396,
  1.8416857719421387,
  1.8280704021453857,
  1.8225212097167969,
  1.8241565227508545,
  1.8259410858154297,
  1.8273000717163086,
  1.8285609483718872,
  1.828109622001648,
  1.8270175457000732,
  1.825455665588379,
  1.8240313529968262,
  1.8247201442718506,
  1.825703740119934,
  1.8272182941436768,
  1.828809142112732,
  1.8306912183761597,
  1.8325704336166382,
  1.834676742553711,
  1.8381259441375732,
  1.842981219291687,
  1.849178433418274,
  1.8556054830551147,
  1.8623807430267334,
  1.8691376447677612,
  1.8750749826431274,
  1.880385398864746,
  1.877373456954956,
  1.8676718473434448,
  1.8531880378723145,
  1.8364046812057495,
  1.8198158740997314,
  1.805519938468933,
  1.7927348613739014,
  1.7739031314849854,
  1.7568399906158447,
  1.7408217191696167,
  1.7334792613983154,
  1.7333831787109375,
  1.7317713499069214,
  1.7299919128417969,
  1.7286120653152466,
  1.7280696630477905,
  1.7278845310211182,
  1.7281557321548462,
  1.7286792993545532,
  1.7296836376190186,
  1.7310380935668945,
  1.7324409484863281,
  1.7339776754379272,
  1.7354295253753662,
  1.7365949153900146,
  1.738201379776001,
  1.7394962310791016,
  1.741118311882019,
  1.742435097694397,
  1.7432607412338257,
  1.7403993606567383,
  1.7340742349624634,
  1.7270995378494263,
  1.720257043838501,
  1.713456153869629,
  1.7048898935317993,
  1.6984460353851318,
  1.693256139755249,
  1.6883560419082642,
  1.6836023330688477,
  1.6784911155700684,
  1.673431396484375,
  1.66900634765625,
  1.665481686592102,
  1.6631579399108887,
  1.6633126735687256,
  1.6640647649765015,
  1.6652270555496216,
  1.6667120456695557,
  1.6683026552200317,
  1.6700923442840576,
  1.6721086502075195,
  1.675817847251892,
  1.6805106401443481,
  1.685782790184021,
  1.6912643909454346,
  1.6970486640930176,
  1.7023826837539673,
  1.7068679332733154,
  1.7103750705718994,
  1.7086344957351685,
  1.7016804218292236,
  1.6891695261001587,
  1.6729495525360107,
  1.6564887762069702,
  1.6424100399017334,
  1.6320611238479614,
  1.6249234676361084,
  1.618503451347351,
  1.613120198249817,
  1.6081056594848633,
  1.6037365198135376,
  1.5998458862304688,
  1.5976165533065796,
  1.596296787261963,
  1.5956016778945923,
  1.595517873764038,
  1.5962038040161133,
  1.5969229936599731,
  1.5979793071746826,
  1.599709153175354,
  1.6016243696212769,
  1.6044305562973022,
  1.608483910560608,
  1.6129027605056763,
  1.6175312995910645,
  1.622200846672058,
  1.626827359199524,
  1.6306346654891968,
  1.6339764595031738,
  1.6314349174499512,
  1.6237832307815552,
  1.6131690740585327,
  1.601805329322815,
  1.5909665822982788,
  1.581463098526001,
  1.5741920471191406,
  1.5692470073699951,
  1.564863681793213,
  1.5606811046600342,
  1.5574860572814941,
  1.5555074214935303,
  1.554599642753601,
  1.5544285774230957,
  1.5545480251312256,
  1.5552887916564941,
  1.5567294359207153,
  1.5580363273620605,
  1.559303641319275,
  1.5605021715164185,
  1.5620510578155518,
  1.5640376806259155
 ],
 "bias": [
  0.05000000074505806,
  0.10003289580345154,
  0.15011978149414062,
  0.19908888638019562,
  0.24407675862312317,
  0.28011640906333923,
  0.3013821244239807,
  0.307961642742157,
  0.2980615496635437,
  0.28158578276634216,
  0.26654618978500366,
  0.25800302624702454,
  0.2578064203262329,
  0.26569056510925293,
  0.28275224566459656,
  0.3049654960632324,
  0.3270646333694458,
  0.3484981656074524,
  0.36588504910469055,
  0.37843430042266846,
  0.38440728187561035,
  0.3863306939601898,
  0.3846299350261688,
  0.3808627724647522,
  0.37748977541923523,
  0.374088853597641,
  0.3711082935333252,
  0.36893361806869507,
  0.3675364851951599,
  0.3672325611114502,
  0.37367725372314453,
  0.38551443815231323,
  0.40241891145706177,
  0.42347252368927,
  0.44662562012672424,
  0.4705367088317871,
  0.49352219700813293,
  0.5133181214332581,
  0.5242866277694702,
  0.5242248177528381,
  0.5161066055297852,
  0.503554105758667,
  0.49068155884742737,
  0.4803920388221741,
  0.4756207764148712,
  0.47678276896476746,
  0.4812125563621521,
  0.4879630208015442,
  0.49745193123817444,
  0.5071865916252136,
  0.5172201991081238,
  0.5267974138259888,
  0.5356207489967346,
  0.5427085161209106,
  0.5487682223320007,
  0.5538762211799622,
  0.557932436466217,
  0.5619003176689148,
  0.5652070641517639,
  0.567432701587677,
  0.5712247490882874,
  0.5752330422401428,
  0.5797801613807678,
  0.5845038294792175,
  0.5898416638374329,
  0.5949345827102661,
  0.5990488529205322,
  0.601868748664856,
  0.6023414134979248,
  0.6007221341133118,
  0.5987727046012878,
  0.5960431694984436,
  0.5944162607192993,
  0.5943106412887573,
  0.5951608419418335,
  0.5985788106918335,
  0.5996633172035217,
  0.5983197689056396,
  0.5958014130592346,
  0.5922475457191467,
  0.5883712768554688,
  0.586470901966095,
  0.5858649015426636,
  0.5865640640258789,
  0.5881375074386597,
  0.5891782641410828,
  0.5899828672409058,
  0.590876042842865,
  0.5924558639526367,
  0.5943048596382141,
  0.6000880599021912,
  0.6092365980148315,
  0.6218669414520264,
  0.6355217099189758,
  0.6498824954032898,
  0.6631476283073425,
  0.6738578081130981,
  0.6813355088233948,
  0.6789174675941467,
  0.6682131886482239,
  0.6535629630088806,
  0.6375589966773987,
  0.6253865957260132,
  0.6203566193580627,
  0.6227338910102844,
  0.6320868134498596,
  0.6400080919265747,
  0.6453070044517517,
  0.6485334634780884,
  0.648820698261261,
  0.6477085947990417,
  0.6450850367546082,
  0.642128050327301,
  0.6409069299697876,
  0.6400177478790283,
  0.6401277780532837,
  0.6403472423553467,
  0.6411792635917664,
  0.6421678066253662,
  0.6436880230903625,
  0.6483505964279175,
  0.6557164788246155,
  0.6657277345657349,
  0.6763913035392761,
  0.687402069568634,
  0.6980093717575073,
  0.7068577408790588,
  0.7137866020202637,
  0.7142840623855591,
  0.7087344527244568,
  0.7005167603492737,
  0.6907517313957214,
  0.6821497678756714,
  0.6768324375152588,
  0.6750468015670776,
  0.673539400100708,
  0.6724244952201843,
  0.6717438697814941,
  0.6758654713630676,
  0.6832533478736877,
  0.689313530921936,
  0.6943230628967285,
  0.6976905465126038,
  0.7014174461364746,
  0.7054266333580017,
  0.7095253467559814,
  0.7133285999298096,
  0.7173717617988586,
  0.721489667892456,
  0.7250861525535583,
  0.7286397218704224,
  0.7317947149276733,
  0.7343379855155945,
  0.7375518679618835,
  0.7404975295066833,
  0.7430822849273682,
  0.744990348815918,
  0.7461941838264465,
  0.74502032995224,
  0.742163360118866,
  0.7401251196861267,
  0.7386593818664551,
  0.7380077242851257,
  0.7370772361755371,
  0.7380843758583069,
  0.7404377460479736,
  0.7408325672149658,
  0.7400606870651245,
  0.7370551824569702,
  0.7325112223625183,
  0.7278918027877808,
  0.7232972979545593,
  0.7199455499649048,
  0.7187739014625549,
  0.7183486223220825,
  0.7183001637458801,
  0.7188207507133484,
  0.7195717096328735,
  0.7206212282180786,
  0.7219021916389465,
  0.7268497347831726,
  0.7344663143157959,
  0.7438052892684937,
  0.7549862265586853,
  0.7663858532905579,
  0.7769826650619507,
  0.785586416721344,
  0.7923165559768677,
  0.794783353805542,
  0.7928441762924194,
  0.7866921424865723,
  0.7773433923721313,
  0.768001914024353,
  0.7611604332923889,
  0.7582452297210693,
  0.7590668201446533,
  0.7593701481819153,
  0.7594687938690186,
  0.7588332295417786,
  0.7571966648101807,
  0.7549495697021484,
  0.7534574866294861,
  0.752871572971344,
  0.7523550987243652,
  0.7522789239883423,
  0.7531866431236267,
  0.7539325952529907,
  0.7547066807746887,
  0.7561724185943604,
  0.7581271529197693,
  0.7625512480735779,
  0.7692736387252808,
  0.7773122787475586,
  0.7857344150543213,
  0.7945672869682312,
  0.8029813170433044,
  0.810120701789856,
  0.8159076571464539,
  0.8165736794471741,
  0.8125465512275696,
  0.805931806564331,
  0.7988224625587463,
  0.7916116118431091,
  0.7857041358947754,
  0.7822891473770142,
  0.78180330991745,
  0.7802808880805969,
  0.7782570719718933,
  0.7771819233894348,
  0.7763060927391052,
  0.7770598530769348,
  0.7784139513969421,
  0.779638409614563,
  0.7811894416809082,
  0.7833262085914612,
  0.7852984666824341,
  0.7868824601173401,
  0.7882918119430542,
  0.7902714610099792,
  0.7927545309066772
 ]
}